/***********************************************************************************************************************
* DISCLAIMER
* This software is supplied by Renesas Electronics Corporation and is only intended for use with Renesas products. No 
* other uses are authorized. This software is owned by Renesas Electronics Corporation and is protected under all 
* applicable laws, including copyright laws. 
* THIS SOFTWARE IS PROVIDED 'AS IS' AND RENESAS MAKES NO WARRANTIES REGARDING
* THIS SOFTWARE, WHETHER EXPRESS, IMPLIED OR STATUTORY, INCLUDING BUT NOT LIMITED TO WARRANTIES OF MERCHANTABILITY, 
* FITNESS FOR A PARTICULAR PURPOSE AND NON-INFRINGEMENT. ALL SUCH WARRANTIES ARE EXPRESSLY DISCLAIMED. TO THE MAXIMUM
* EXTENT PERMITTED NOT PROHIBITED BY LAW, NEITHER RENESAS ELECTRONICS CORPORATION NOR ANY OF ITS AFFILIATED COMPANIES 
* SHALL BE LIABLE FOR ANY DIRECT, INDIRECT, SPECIAL, INCIDENTAL OR CONSEQUENTIAL DAMAGES FOR ANY REASON RELATED TO THIS 
* SOFTWARE, EVEN IF RENESAS OR ITS AFFILIATES HAVE BEEN ADVISED OF THE POSSIBILITY OF SUCH DAMAGES.
* Renesas reserves the right, without notice, to make changes to this software and to discontinue the availability of 
* this software. By using this software, you agree to the additional terms and conditions found by accessing the 
* following link:
* http://www.renesas.com/disclaimer 
*
* Changed from original python code to C source code.
* Copyright (C) 2017 Renesas Electronics Corporation. All rights reserved.
***********************************************************************************************************************/
/***********************************************************************************************************************
* File Name    : weights.h
* Version      : 1.00
* Description  : Weights and biases of the layers
***********************************************************************************************************************/
/**********************************************************************************************************************
* History : DD.MM.YYYY Version  Description
*         : 16.06.2017 1.00     First Release
***********************************************************************************************************************/

#ifndef WEIGHTS_H_
#define WEIGHTS_H_
TPrecision conv_biased_1_0_weights[] = {0.6554195880889893,0.40112000703811646,0.3009072244167328,0.5824393033981323,0.48417922854423523,0.3774867653846741,0.5542395710945129,0.589755117893219,0.5866960883140564,0.3998450040817261,0.5122610330581665,0.5719850659370422,0.2995244562625885,0.5647562146186829,0.3329947888851166,0.25257495045661926,0.3763692080974579,0.6204091310501099,0.061223726719617844,0.05271165445446968,0.4054235816001892,0.19115212559700012,0.17647850513458252,0.32107698917388916,0.005764054134488106,0.2861899733543396,0.2070494443178177,-0.0379609540104866,-0.12815403938293457,-0.043135128915309906,-0.0642283484339714,0.2040451318025589,0.04952438175678253,-0.21679867804050446,-0.08850366622209549,-0.1540094017982483};
TPrecision conv_biased_1_0_biases[] = {-3.552150474206428e-06,0.1790550798177719,0.1274983286857605,0.41502055525779724};
TPrecision conv_biased_3_0_weights[] = {0.4135064482688904,-0.18758061528205872,-0.0787263959646225,0.24891138076782227,0.15353898704051971,-0.32228416204452515,0.2656916081905365,0.1740015149116516,-0.36315518617630005,0.28400084376335144,-0.1676129549741745,-0.24722902476787567,0.40708011388778687,-0.11561162024736404,-0.31633058190345764,0.38884976506233215,0.08212211728096008,-0.2740339934825897,-0.013409322127699852,0.026847874745726585,-0.06926434487104416,0.1478385478258133,-0.18918079137802124,-0.1279802769422531,-0.01801484264433384,0.07999951392412186,-0.1645912081003189,-0.0014455289347097278,-0.14893598854541779,0.05780341103672981,0.0479164645075798,0.01598532125353813,0.03387977555394173,0.1848122775554657,0.16694128513336182,0.12190508097410202,0.1370658278465271,0.25411149859428406,0.047478605061769485,0.04315762594342232,0.5975884199142456,0.05782339721918106,0.009580685757100582,0.6192225217819214,0.25369054079055786,0.00872899778187275,0.21563631296157837,0.22987493872642517,0.27085617184638977,0.2734295427799225,0.12237037718296051,0.19570672512054443,0.3199886083602905,-0.0828281044960022,0.07603397220373154,0.24521295726299286,-0.06149328127503395,0.10710074752569199,0.27414658665657043,-0.029184916988015175,0.08676616102457047,0.16395793855190277,-0.02314133010804653,0.07528585195541382,-0.05216960608959198,-0.06374644488096237,-0.089166559278965,-0.07876759767532349,0.0503351055085659,-0.07563591003417969,-0.03947353735566139,-0.20456521213054657,-4.231392085785046e-05,0.19451914727687836,0.12775956094264984,-0.10906890779733658,-0.119601309299469,0.17590616643428802,0.030081095173954964,-0.05522125959396362,0.06354131549596786,0.025608005002141,-0.025920359417796135,0.25158658623695374,0.08705024421215057,0.11695313453674316,0.31264278292655945,-0.16817879676818848,0.08273077011108398,0.16309070587158203,-0.1745009571313858,0.0355447418987751,0.09900772571563721,-0.11838098615407944,0.11015882343053818,0.005220924504101276,-0.09509094804525375,-0.005333147011697292,0.05130581557750702,0.10432659089565277,-0.19488425552845,-0.1366332322359085,0.029864611104130745,-0.18763066828250885,0.03304128348827362,-0.08402547240257263,-0.016533590853214264,-0.12404900044202805,-0.1256324052810669,-0.02898518368601799,0.0567815937101841,0.004626421723514795,0.14763525128364563,-0.1256793737411499,0.00477207824587822,0.011757249012589455,-0.08219170570373535,-0.017011236399412155,0.06289681047201157,-0.09846179932355881,0.075192891061306,0.0333714634180069,-0.11933448165655136,0.00944118294864893,-0.1600579023361206,0.22124820947647095,-0.1544627696275711,0.12601026892662048,0.19566087424755096,0.02303961291909218,-0.0024095457047224045,0.0038166530430316925,0.08370621502399445,-0.053983937948942184,-0.04739749804139137,-0.14464066922664642,0.06056562066078186,-0.14140558242797852,-0.01192715298384428,-0.1481422632932663,-0.01042137946933508,0.004934308584779501,0.08604136109352112,-0.1354357749223709,-0.09993403404951096,0.0425269789993763,-0.10329397022724152,0.06029784306883812,-0.05701909586787224,0.0519443117082119,0.07073740661144257,-0.04559736326336861,-0.06619975715875626,0.11700987070798874,-0.04526848345994949,-0.17009176313877106,-0.041674114763736725,0.08627444505691528,0.11017130315303802,-0.08405441045761108,0.16078497469425201,-0.05118302255868912,-0.05921182781457901,-0.018445413559675217,0.08142245560884476,-0.037300582975149155,0.07280818372964859,-0.026435401290655136,-0.019531529396772385,0.05078258737921715,0.06877654045820236,-0.10138513147830963,-0.03414694592356682,-0.0763280987739563,-0.006219123024493456,0.07243526726961136,0.061239976435899734,-0.09377121925354004,0.006655306089669466,0.07563519477844238,-0.20273859798908234,0.02335994318127632,-0.028657937422394753,-0.1742679625749588,0.047447819262742996,0.11696974188089371,-0.1216757595539093,-0.2946925163269043,-0.11980999261140823,0.1082916185259819,0.33533406257629395,0.08730367571115494,-0.049266695976257324,0.09540371596813202,0.09715510159730911,0.13930973410606384,-0.22098980844020844,0.023784935474395752,-0.023436620831489563,0.21550993621349335,-0.07509355247020721,0.05632075294852257,0.0012454070383682847,0.20515188574790955,-0.03743527829647064,0.028913268819451332,-0.036571748554706573,0.22144033014774323,0.12312046438455582,0.0966896191239357,-0.011806273832917213,-0.06732714176177979,0.04428587853908539,0.0973486453294754,0.09686312824487686,0.09441746771335602,-0.047549620270729065,0.36843687295913696,0.29253414273262024,0.3344973921775818,0.24428044259548187,-0.11385268718004227,0.33187001943588257,0.20599935948848724,-0.08744296431541443,0.010971080511808395,0.09346239268779755,0.1860637366771698,0.22544069588184357,0.1123100072145462,-0.08429877460002899,0.3146369755268097,0.23999539017677307,-0.31177452206611633,0.1409519910812378,0.22398220002651215,-0.04000342637300491,0.13979285955429077,-0.014021161012351513,0.003063709009438753,0.1467302292585373,-0.04396327957510948,-0.07712006568908691,-0.09274010360240936,0.04794612154364586,-0.09061266481876373,0.057875633239746094,-0.08651938289403915,0.13984979689121246,-0.04860305413603783,-0.010349581949412823,-0.06693952530622482,-0.37939170002937317,-0.2886958122253418,-0.2618921995162964,0.01100228913128376,0.12192045897245407,0.09172587096691132,0.20833641290664673,0.1239885464310646,0.16172821819782257,-0.23115174472332,-0.3805350661277771,-0.19661663472652435,0.16715532541275024,0.134600430727005,0.14603999257087708,0.1603076457977295,0.22194340825080872,0.18663203716278076,-0.023937391117215157,-0.08933112770318985,-0.2433082014322281,0.2081286758184433,-0.009471253491938114,0.05854254961013794,0.19660359621047974,0.148098886013031,-0.025599028915166855,0.2245410978794098,0.2813340723514557,0.13629566133022308,0.030712781473994255,0.1423228234052658,-0.0005312159773893654,0.07751620560884476,-0.010141345672309399,0.09791290014982224};
TPrecision conv_biased_3_0_biases[] = {0.15508392453193665,0.02455703541636467,0.10578632354736328,0.1460130512714386,0.15858547389507294,0.31206437945365906,0.06606022268533707,0.2960062026977539};
TPrecision conv_biased_5_0_weights[] = {0.11406916379928589,-0.023799331858754158,0.14885058999061584,0.2758072316646576,0.12184882164001465,0.23325161635875702,0.07800184935331345,0.08517631143331528,0.1388358771800995,-0.0579882487654686,0.02472548559308052,0.023071156814694405,0.035979241132736206,-0.10559055209159851,0.16931849718093872,-0.0504656583070755,0.02817932330071926,-0.022948823869228363,-0.10475535690784454,-0.12636436522006989,-0.06566661596298218,0.07632068544626236,-0.04954971745610237,-0.048109620809555054,0.12985478341579437,0.04527717083692551,-0.08772701770067215,-0.07272104918956757,-0.05738077685236931,-0.03507652133703232,-0.0976862907409668,-0.06050192937254906,0.031008625403046608,-0.13168489933013916,0.1021617129445076,0.05984098091721535,0.032675329595804214,-0.061713408678770065,0.041835326701402664,-0.14222876727581024,-0.014338542707264423,0.08746903389692307,0.030582182109355927,-0.045989200472831726,0.08960267156362534,-0.04754750803112984,0.2534835636615753,0.013952929526567459,-0.06025141850113869,0.0505572073161602,0.041817083954811096,-0.07771440595388412,0.055005110800266266,0.13287392258644104,-0.05716582015156746,0.14155961573123932,0.16289806365966797,-0.04508509114384651,0.07395674288272858,0.10635147988796234,-0.013044001534581184,0.09925893694162369,-0.10710582137107849,0.16176393628120422,-0.19201911985874176,0.02197088673710823,0.15072108805179596,0.27581605315208435,-0.035886913537979126,-0.015162342227995396,0.014581435360014439,0.042918480932712555,-0.17970460653305054,-0.12367831915616989,-0.023767439648509026,-0.020817700773477554,-0.1301911175251007,0.014264915138483047,-0.030690032988786697,0.07297962158918381,0.03681773692369461,-0.2566516697406769,-0.25134170055389404,0.14181403815746307,0.07740816473960876,0.04863268509507179,0.10929707437753677,0.20726560056209564,0.09936412423849106,0.034402839839458466,-0.044155824929475784,0.08056546002626419,0.17041024565696716,-0.09060609340667725,0.012224458158016205,0.08733169734477997,-0.13753989338874817,-0.10548369586467743,0.027010055258870125,-0.08550505340099335,0.10497581958770752,0.05515090376138687,-0.08874070644378662,0.12446247041225433,0.04332885146141052,0.0077335285022854805,0.04786308854818344,0.09734604507684708,-0.09649829566478729,0.09519548714160919,-0.02456294372677803,-0.03294626995921135,-0.04041825234889984,-0.03600533306598663,-0.11760944873094559,0.09512481093406677,0.016222601756453514,-0.07423502206802368,-0.017450904473662376,0.0648183673620224,-0.06520102173089981,-0.1236543208360672,0.05407794937491417,0.020364049822092056,-0.10340140759944916,-0.13813765347003937,-0.10560134053230286,-0.06279974430799484,-0.10399382561445236,-0.08143612742424011,0.04600375145673752,0.10245271027088165,0.012176964432001114,0.04678560420870781,0.010028211399912834,-0.11164122074842453,0.016722209751605988,-0.09068889915943146,0.15034489333629608,0.0020559814292937517,0.01032827515155077,-0.05412907898426056,-0.06377531588077545,0.030173050239682198,-0.06183909252285957,0.05234678462147713,0.013127991929650307,0.09062647819519043,0.1197318509221077,0.06245134025812149,0.23815762996673584,0.006273298524320126,0.2747337520122528,0.01783483661711216,0.0908217653632164,0.10571220517158508,0.12313566356897354,-0.1532929241657257,0.12006276845932007,-0.029701795428991318,0.08203736692667007,-0.17035281658172607,-0.06273526698350906,0.05788825452327728,-0.03891691938042641,-0.04539743438363075,0.0254705548286438,0.008811628445982933,-0.1841210126876831,0.08642079681158066,-0.06614372879266739,-0.04835961014032364,-0.0864594578742981,0.0009658411145210266,0.16176223754882812,0.12925539910793304,0.08671487122774124,-0.12168533354997635,-0.030808698385953903,-0.07556939125061035,0.14330288767814636,0.15567947924137115,-0.030110327526926994,-0.11558728665113449,-0.11823645234107971,0.022615160793066025,0.20822279155254364,-0.08865819871425629,-0.07522990554571152,-0.01518112700432539,0.04232491925358772,0.14317364990711212,-0.06562910228967667,-0.07634256035089493,0.10679672658443451,-0.015193157829344273,0.04879208281636238,0.10216937959194183,0.007338656112551689,0.07550901919603348,-0.015751972794532776,-0.0017399790231138468,-0.09307173639535904,0.06068044528365135,-0.07106748223304749,-0.023186860606074333,0.2427699714899063,-0.013313931412994862,-0.025416353717446327,-0.022053929045796394,-0.010324019007384777,0.1389474719762802,0.13222502171993256,-0.2023923546075821,0.02065093256533146,0.08005646616220474,-0.025187527760863304,0.2039223611354828,0.27190276980400085,-0.08682608604431152,0.0906888097524643,0.28332632780075073,-0.013804514892399311,0.11261584609746933,0.25432541966438293,-0.08497784286737442,0.11502356082201004,-0.10510171949863434,-0.16394732892513275,0.09701891988515854,0.178695410490036,-0.17527033388614655,-0.014607974328100681,0.07366786897182465,0.011504502035677433,-0.08601628988981247,-0.05123655125498772,0.02522037923336029,0.2028060406446457,-0.10405135154724121,-0.025041833519935608,0.061124932020902634,-0.07595420628786087,0.019411858171224594,0.04263141006231308,-0.06103814020752907,0.04339839145541191,0.0953848659992218,-0.0680491179227829,0.05241980403661728,-0.01666141301393509,-0.1445152461528778,-0.06468275189399719,0.07858539372682571,0.045913636684417725,-0.1963912844657898,-0.07236348092556,0.08941395580768585,0.06953993439674377,0.18018987774848938,-0.11119682341814041,0.15034741163253784,0.21765004098415375,-0.05823012441396713,0.21850858628749847,0.12897765636444092,0.013235222548246384,-0.04583977535367012,0.06137463450431824,-0.04310857132077217,-0.027107341215014458,-0.02345869690179825,0.06656355410814285,-0.2548486292362213,0.046249665319919586,0.13249900937080383,-0.22113363444805145,0.08472844213247299,0.05197260156273842,-0.14676344394683838,0.18682065606117249,-0.10678303986787796,-0.1597031056880951,-0.06759188324213028,-0.04976090043783188,0.12837687134742737,-0.11420881003141403,-0.09518188238143921,-0.01817907765507698,0.022624416276812553,-0.12096698582172394,-0.06424781680107117,0.11277183890342712,-0.13351605832576752,-0.04322093725204468,0.010226953774690628,-0.047135427594184875,0.2414005845785141,0.23537032306194305,-0.11926282197237015,0.23520520329475403,-0.06656412035226822,-0.16610947251319885,0.33186718821525574,-0.18415626883506775,-0.18292641639709473,0.017800502479076385,-0.026774056255817413,0.023124247789382935,0.025982262566685677,-0.07611778378486633,-0.012632571160793304,-0.002629463793709874,-0.12065842002630234,0.015934541821479797,-0.01644883118569851,0.1382451057434082,0.08516465872526169,0.018058016896247864,0.012167524546384811,-0.005348362028598785,-0.08000016212463379,-0.030169358476996422,-0.07965787500143051,0.16649682819843292,-0.1078847274184227,-0.20168383419513702,-0.14381028711795807,0.013083014637231827,0.09540702402591705,0.18814942240715027,-0.10815700888633728,-0.05679784342646599,-0.03130333125591278,0.014949282631278038,-0.004610196687281132,-0.13981065154075623,-0.06712448596954346,0.09029362350702286,0.07073274254798889,-0.060876864939928055,-0.04865094646811485,0.19765083491802216,0.019150253385305405,-0.028075700625777245,0.2474900335073471,-0.0914921686053276,-0.252569317817688,0.2222953587770462,0.08139718323945999,-0.20489849150180817,0.13331715762615204,-0.008245781995356083,-0.07969801872968674,-0.2291174829006195,-0.2074204832315445,0.0433584526181221,-0.1582726091146469,-0.0708911269903183,-0.00971129909157753,-0.1344836950302124,0.005187635775655508,0.011042737402021885,0.021780679002404213,-0.12837131321430206,0.11039301007986069,-0.011210216209292412,-0.17798878252506256,0.09811720252037048,-0.1454053670167923,-0.21113967895507812,0.05642842873930931,-0.039518967270851135,-0.05490374565124512,0.03778543323278427,0.19777865707874298,0.037869323045015335,0.03609570488333702,-0.18735374510288239,-0.007952434942126274,0.057757675647735596,0.06018855795264244,0.11446648091077805,-0.04803901165723801,0.08993413299322128,-0.07292692363262177,0.03380761668086052,-0.024206524714827538,-0.0050661684945225716,0.08714643120765686,0.06613658368587494,-0.0006369599723257124,-0.029674381017684937,0.060448288917541504,-0.027563298121094704,0.09380131214857101,-0.18307353556156158,0.017541009932756424,0.14507603645324707,-0.06738661974668503,0.1651833951473236,-0.023890316486358643,-0.15937113761901855,-0.07268469780683517,-0.11175324022769928,-0.08038298040628433,-0.1797611266374588,-0.07921584695577621,0.08186249434947968,0.028445890173316002,-0.10491384565830231,0.09384389221668243,-0.10798129439353943,0.12740664184093475,-0.08919870853424072,-0.10303356498479843,-0.007980556227266788,-0.11339724063873291,-0.019651608541607857,-0.12684541940689087,0.15969711542129517,0.1550241857767105,0.10211928188800812,0.14655570685863495,0.13655529916286469,0.04564061015844345,-0.07433388382196426,-0.056378964334726334,0.1625962108373642,-0.016544705256819725,-0.038923729211091995,-0.05785106495022774,0.025611739605665207,0.030796285718679428,0.15255065262317657,-0.037648819386959076,0.07292375713586807,0.1585027277469635,-0.039557259529829025,-0.006468612235039473,0.06083952262997627,-0.023166850209236145,-0.16071850061416626,-0.14941896498203278,-0.026696456596255302,0.18262065947055817,-0.11522641032934189,-0.077534019947052,0.11394482851028442,-0.005278966389596462,0.18326188623905182,0.01601020060479641,-0.005055260844528675,0.00031373370438814163,-0.015445185825228691,-0.1702054738998413,0.09878547489643097,-0.10352591425180435,-0.07727804780006409,0.045189499855041504,0.04065697640180588,0.039619311690330505,0.12080425769090652,0.1620735377073288,0.16111616790294647,-0.03745336830615997,-0.00022346967307385057,0.06782947480678558,0.18517108261585236,0.07382772117853165,-0.04115361347794533,0.11792804300785065,0.07692541182041168,0.06650692969560623,-0.028357025235891342,-0.05837274342775345,0.07879339158535004,0.15248392522335052,0.22156505286693573,0.08695139735937119,0.02614528499543667,0.008332988247275352,0.2066628634929657,-0.16540992259979248,-0.0881345197558403,-0.030037639662623405,-0.052026376128196716,0.17591097950935364,-0.10809939354658127,-0.019944338127970695,0.10215015709400177,0.10030996054410934,-0.125066339969635,0.08338575810194016,0.19490982592105865,0.06518141180276871,0.20136556029319763,0.2953176200389862,0.14808979630470276,0.26543134450912476,0.276577889919281,-0.04977710172533989,0.06415239721536636,0.09005028754472733,0.02852024883031845,0.007292963098734617,0.277180939912796,0.12914244830608368,0.10548960417509079,-0.06203160062432289,-0.019170710816979408,-0.007685735821723938,0.14778870344161987,0.15811000764369965,0.022671524435281754,0.03956636041402817,-0.07672709226608276,0.1778474748134613,0.2408597320318222,0.12899677455425262,0.1292392462491989,0.12523415684700012,-0.01941283419728279,0.15453580021858215,-0.017941873520612717,-0.011473947204649448,0.020337894558906555,0.08356630057096481,0.162928506731987,-0.028113417327404022,0.021152544766664505,0.010402766987681389,-0.067206010222435,-0.04059474542737007,-0.06436502188444138,-0.0531349815428257,-0.08233145624399185,0.1427578181028366,0.07215016335248947,0.041826359927654266,-0.08799504488706589,-0.14610864222049713,-0.02063663676381111,0.0030254684388637543,0.017490355297923088,0.09100670367479324,-0.06644041836261749,-0.0842374935746193,-0.15955400466918945,-0.03888934478163719,-0.035536061972379684,-0.1032252237200737,0.012482759542763233,-0.05813239887356758,0.220667764544487,0.06676889210939407,0.02925023064017296,0.04377171769738197,-0.13965702056884766,-0.1348775029182434,0.07042831927537918,0.050587017089128494,0.1461130827665329,0.06538959592580795,0.10509352385997772,0.15580129623413086,0.08367831259965897,-0.17293216288089752,0.030117575079202652,-0.004838105756789446,-0.017680387943983078,0.006620167288929224,-0.19354000687599182,-0.05357504263520241,-0.09214361757040024,0.11671444028615952,-0.039457570761442184,0.09470432996749878,0.033933259546756744,0.024195266887545586,-0.09453831613063812,-0.0288095623254776,-0.11462628841400146,0.19674696028232574,-0.0032728014048188925,0.1725393533706665,0.19382202625274658,-0.06712494045495987,0.10948818922042847,-0.03933974727988243,0.10331150889396667,0.17182566225528717,0.1155608743429184,0.0500958114862442,-0.00044071991578675807,0.11072078347206116,-0.010752894915640354,-0.12174493819475174,-0.0697801485657692,0.05648476630449295,0.05065830424427986,-0.03664654493331909,-0.1278304010629654,-0.10016652196645737,0.03984648361802101,0.07056684792041779,-0.045976728200912476,0.0926465094089508,0.08394677191972733,0.048956356942653656,0.05750638246536255,0.12189368903636932,-0.01053561456501484,-0.019514666870236397,-0.03978830575942993,-0.06154216080904007,0.09589390456676483,-0.0669805034995079,-0.08126121759414673,-0.144819438457489,0.11979582160711288,-0.08870159089565277,0.013948088511824608,-0.027362076565623283,0.010913686826825142,-0.09453275054693222,0.17463599145412445,0.10680989921092987,-0.059685058891773224,-0.022691337391734123,0.021809225901961327,0.08079797029495239,0.09288741648197174,-0.07155472785234451,0.0606299452483654,-0.02782388962805271,0.11093638092279434,0.24145974218845367,-0.09865736216306686,-0.14091277122497559,0.04366954416036606,0.05873197317123413,0.0039294627495110035,0.09607090801000595,-0.04506150260567665,0.0061408719047904015,0.02005845680832863,0.07508028298616409,0.012780683115124702,-0.05050381273031235,-0.04807905852794647,-0.14926216006278992,0.16091443598270416,0.15146474540233612,0.02288171835243702,0.13721290230751038,-0.0609234943985939,-0.009869016706943512,-0.06465642154216766,-0.03474863991141319,-0.1684284806251526,-0.0089176120236516,0.1860969066619873,0.12370617687702179,0.14702200889587402,-0.1043233573436737,0.04069708287715912,-0.05036762356758118,0.016996195539832115,-0.08665134757757187,-0.12261302769184113,0.08498653024435043,0.19830107688903809,0.010016938671469688,-0.014032866805791855,-0.060389190912246704,-0.13834449648857117,0.041911184787750244,0.031905751675367355,-0.05824901536107063,0.05464191734790802,0.13846799731254578,0.1578180342912674,-0.03796352818608284,0.11187072843313217,0.049116019159555435,-0.060134027153253555,-0.045443739742040634,0.03236052393913269,-0.09120561927556992,0.0546593964099884,-0.08814225345849991,0.12375519424676895,-0.0964961051940918,-0.09144951403141022,-0.06495479494333267,-0.1265234649181366,-0.014352196827530861,-0.03187326341867447,0.0355464406311512,0.14001654088497162,0.16349220275878906,0.0749354287981987,-0.14590714871883392,-0.0009624988888390362,-0.18183697760105133,0.05574307218194008,0.026576315984129906,-0.05531523376703262,0.08787140250205994,-0.04652346298098564,0.011973852291703224,0.08348936587572098,0.1614304631948471,0.0013210551114752889,0.15753856301307678,-0.15493683516979218,0.22296921908855438,-0.05259057879447937,0.020938441157341003,0.14222437143325806,-0.06671399623155594,-0.058766890317201614,0.07819243520498276,0.06307807564735413,-0.12121360749006271,0.23407384753227234,-0.18576757609844208,-0.03409843146800995,-0.011237875558435917,-0.1621795892715454,-0.10897151380777359,0.03806231543421745,-0.16781698167324066,-0.12191624194383621,-0.14702527225017548,-0.05179494619369507,0.27684924006462097,0.02499454654753208,-0.04727111756801605,-0.17176716029644012,-0.09520786255598068,0.03109566494822502,0.0016467440873384476,-0.18393906950950623,0.05285375192761421,0.12561774253845215,-0.06970953941345215,-0.027420034632086754,0.05759403482079506,0.061735764145851135,0.166801318526268,-0.12320852279663086,-0.11071322858333588,0.02720179408788681,-0.00409974530339241,0.11116965860128403,0.09776558727025986,0.08523011952638626,0.0473656952381134,0.12444576621055603,-0.016352355480194092,0.031990136951208115,0.09513555467128754,-0.060892440378665924,0.0902724638581276,0.249497652053833,0.10853665322065353,-0.02197691611945629,0.10016662627458572,0.01144497375935316,-0.05633721128106117,0.17638014256954193,0.01819751225411892,0.12280014157295227,0.05914567410945892,-0.13326947391033173,0.10186371952295303,-0.20181217789649963,-0.04386350139975548,0.11377358436584473,-0.2316085398197174,-0.0025854751002043486,0.11630381643772125,0.18080337345600128,0.19256310164928436,0.12369649112224579,0.007998662069439888,0.16849663853645325,0.09026247262954712,0.29428592324256897,0.24210867285728455,0.13363541662693024,-0.11179938912391663,0.16006211936473846,0.19402964413166046,0.003018513321876526,-0.17011579871177673,0.007359271869063377,0.0558723621070385,-0.055250298231840134,0.16715413331985474,-0.00788242556154728,0.09720936417579651,-0.00662929005920887,-0.16808512806892395,0.06311077624559402,0.04156964272260666,-0.041133832186460495,-0.07462041825056076,-0.12013565748929977,0.024554191157221794,-0.002071831375360489,0.013613482937216759,-0.03189889341592789,0.1957472264766693,0.10771096497774124,0.07789826393127441,0.14228269457817078,0.14574351906776428,-0.01429843995720148,0.1916695535182953,0.04030817747116089,0.006415877025574446,-0.15307344496250153,-0.001783333602361381,0.0408690981566906,-0.06928407400846481,0.12786345183849335,-0.04137503728270531,0.039217278361320496,0.0288846418261528,-0.025546323508024216,-0.0040411679074168205,0.14648127555847168,0.032800279557704926,-0.08778464049100876,-0.12177319824695587,0.041145335882902145,-0.08280577510595322,0.0028370392974466085,0.14912059903144836,0.035236530005931854,0.02166190929710865,-0.11926521360874176,0.08108337968587875,-0.029690543189644814,0.04148365184664726,-0.037871990352869034,0.16343678534030914,0.04460735619068146,-0.08402824401855469,0.18939705193042755,-0.08190638571977615,0.033709630370140076,0.01302005909383297,-0.1711113303899765,-0.01145925559103489,-0.11146555095911026,0.08621402084827423,-0.1314770132303238,0.14908510446548462,0.19317609071731567,-0.07312754541635513,0.14104904234409332,0.02216583862900734,-0.09591216593980789,0.23334644734859467,0.07816486060619354,-0.05606309324502945,-0.22249965369701385,-0.10589386522769928,0.1889030933380127,0.06528843939304352,-0.07015803456306458,-0.03730505332350731,0.11580686271190643,-0.013058443553745747,-0.15536251664161682,-0.049280013889074326,0.15716205537319183,0.026192395016551018,-0.0010840952163562179,0.010938659310340881,0.07828273624181747,0.004666822496801615,-0.19377446174621582,-0.0595579519867897,0.22416143119335175,-0.04808112978935242,0.05310900881886482,-0.02837967500090599,-0.09667166322469711,-0.10287758708000183,0.02541770599782467,0.04147450253367424,-0.1222611665725708,0.057116661220788956,-0.021918876096606255,-0.11502008885145187,0.03431634604930878,0.036410048604011536,0.06516261398792267,-0.09616822004318237,-0.051575835794210434,-0.023412343114614487,0.05621878057718277,-0.020254887640476227,0.00728352926671505,0.17269808053970337,-0.0034650135785341263,-0.07246623933315277,0.00170478958170861,0.06208625063300133,0.06230511888861656,0.06735172122716904,-0.09185700118541718,-0.13139358162879944,0.03582635521888733,-0.07609443366527557,-0.1381792277097702,-0.1567569375038147,-0.08312834799289703,-0.018627483397722244,-0.0009977493900805712,-0.11541374027729034,0.07440972328186035,0.03214777633547783,0.01002783328294754,0.09140759706497192,0.2988329231739044,0.15847204625606537,-0.019839460030198097,0.025732679292559624,-0.01633293554186821,0.06344005465507507,0.3486013412475586,0.195073664188385,-0.041521020233631134,0.0693136677145958,0.20584414899349213,0.1763986051082611,0.24520084261894226,0.2323288768529892,-0.030456895008683205,0.012727408669888973,-0.10706289857625961,0.02569417841732502,-0.21136315166950226,0.06627020239830017,0.28354892134666443,-0.014626706019043922,0.2629476487636566,-0.12273135036230087,-0.1535150408744812,-0.007563144434243441,0.20688652992248535,-0.10173491388559341,0.038290489464998245,-0.06889666616916656,0.06913875043392181,0.00922751147300005,-0.1476537436246872,0.008481231518089771,0.1023656576871872,-0.05180427432060242,-0.10625530034303665,0.10049520432949066,0.05379435792565346,-0.0010179399978369474,0.005359913222491741,0.05284719914197922,-0.03808435797691345,-0.040078334510326385,0.07963062822818756,-0.034008387476205826,-0.07254663109779358,-0.2033308744430542,0.06737849861383438,0.04726084694266319,0.04972141981124878,0.1751631647348404,-0.16042590141296387,-0.007437245920300484,0.051487941294908524,0.0016978938365355134,0.09536144882440567,0.10739439725875854,0.06996989250183105,0.04676384851336479,0.12421602010726929,-0.19629204273223877,0.15418408811092377,-0.20167891681194305,-0.1222633644938469,0.25178661942481995,-0.03906622901558876,0.16030965745449066,-0.1600329577922821,-0.2278146892786026,0.07977935671806335,0.15967026352882385,-0.029134146869182587,0.24741722643375397,-0.11261044442653656,0.015703877434134483,0.02516387216746807,-0.1572064459323883,-0.2564878463745117,0.11260226368904114,0.28356558084487915,-0.03838120400905609,0.02817310392856598,0.24525970220565796,-0.10738178342580795,0.11540286242961884,0.05558484047651291,-0.07929573208093643,0.28653591871261597,-0.3183690011501312,-0.02248137816786766,0.12621049582958221,-0.12575650215148926,0.10730285942554474,0.08515114337205887,-0.19813501834869385,0.11911486834287643,0.17616385221481323,-0.13412941992282867,0.0783313661813736,0.10977770388126373,-0.15669015049934387,-0.09453815966844559,0.12465444952249527,-0.015368659980595112,-0.028015578165650368,-0.010538761503994465,0.13438963890075684,0.1604406237602234,0.026540176942944527,-0.0015814702492207289,-0.03237311542034149,-0.06802067160606384,0.043841611593961716,0.011154968291521072,0.02896840125322342,-0.09524200856685638,0.0030663092620670795,-0.14822512865066528,0.0021834117360413074,0.017368728294968605,-0.01677928864955902,-0.05807321518659592,-0.07728435099124908,0.1103980541229248,-0.04467413201928139,-0.02913527749478817,0.1594417691230774,0.17234349250793457,0.16059520840644836,0.018595373257994652,-0.01593482494354248,-0.17993271350860596,0.14850302040576935,-0.2246275693178177,-0.10982511192560196,0.04614802449941635,-0.06329486519098282,-0.00081976706860587,0.18338797986507416,-0.1087954044342041,-0.07416145503520966,0.10012637823820114,0.004045155365020037,-0.0853467509150505,0.11738548427820206,0.014714970253407955,0.24115900695323944,0.01536345575004816,-0.1498737335205078,0.0017033559270203114,0.04809049144387245,-0.003990806173533201,0.18220293521881104,-0.136414036154747,-0.012130027636885643,0.013683698140084743,0.09770365059375763,-0.0039219930768013,0.029241574928164482,0.15257281064987183,-0.0035999687388539314,-0.09714815765619278,-0.08129860460758209,0.062193941324949265,-0.031780123710632324,0.24209046363830566,0.017488950863480568,0.06205577775835991,0.09979484230279922,0.05323941633105278,0.0772748738527298,0.06649747490882874,0.0037611809093505144,0.07672172784805298,0.06680169701576233,0.022373702377080917,0.06512368470430374,0.06629084795713425,0.03782220557332039,0.09305765479803085,-0.04878820851445198,0.027059564366936684,0.12198574841022491,-0.010418525896966457,0.06837757676839828,-0.0844774842262268,-0.01351173222064972,0.12242365628480911,-0.08554849028587341,-0.03320205584168434,0.08574751019477844,-0.09659741073846817,0.03780018538236618,-0.02037208527326584,-0.04114656522870064,-0.105206698179245,-0.15806306898593903,0.07214771956205368,-0.035580772906541824,-0.1324438899755478,0.053368791937828064,-0.1635284125804901,-0.04753699153661728,0.04153639078140259,-0.08413764834403992,-0.0996033102273941,0.08331482112407684,-0.14929935336112976,-0.018155831843614578,-0.07370377331972122,0.11857368797063828,-0.03907645866274834,-0.029174597933888435,0.058972522616386414,0.04769209772348404,0.11013045161962509,0.016572579741477966,-0.11364828795194626,-0.04634300246834755,0.14704877138137817,0.026667291298508644};
TPrecision conv_biased_5_0_biases[] = {0.13086244463920593,0.17450569570064545,0.07516025006771088,0.10484898835420609,0.09405368566513062,0.139346182346344,0.10608036071062088,0.11043629795312881,0.08585520088672638,0.08934178948402405,0.27163180708885193,0.09820518642663956,0.11721847206354141,0.10392966121435165,0.14731155335903168,0.11581617593765259};
TPrecision fully_connected_BiasAdd_0_weights[] = {-0.15527625381946564,-0.01990065723657608,0.09115539491176605,-0.1029292643070221,-0.048658352345228195,0.19235444068908691,-0.07308971136808395,0.09602189064025879,-0.10976314544677734,-0.1282448023557663,-0.08827225863933563,0.1291482299566269,-0.10048937797546387,-0.0685938224196434,-0.02439912036061287,-0.10278581827878952,0.09190894663333893,-0.03958912938833237,-0.0595361553132534,0.1265002191066742,-0.05344041809439659,0.07907677441835403,-0.09327727556228638,0.06312912702560425,0.06953798234462738,-0.04251997172832489,0.02714167721569538,-0.11069172620773315,0.035456713289022446,-0.03612719848752022,-0.10893846303224564,0.024440264329314232,0.025980370119214058,0.0623575858771801,-0.00693170353770256,0.05257507041096687,-0.11975084245204926,-0.10199262946844101,-0.007600869983434677,-0.09445807337760925,0.005349661223590374,0.0670434832572937,-0.10883556306362152,-0.014291197061538696,-0.024026259779930115,0.008088910952210426,-0.16254405677318573,-0.1319589763879776,-0.023188769817352295,0.10831423848867416,0.1414293348789215,-0.1291748583316803,-0.04991116374731064,-0.07773071527481079,-0.021339455619454384,0.0691397562623024,-0.017950434237718582,-0.024019572883844376,-0.01826673373579979,0.16272786259651184,0.008401877246797085,0.010381268337368965,0.011872992850840092,-0.05665455013513565,-0.015418238937854767,0.1517527550458908,-0.05104602500796318,-0.14464953541755676,0.11212365329265594,0.09644527733325958,-0.06340407580137253,-0.13019739091396332,-0.12220961600542068,0.034727707505226135,-0.07727790623903275,0.11451335996389389,-0.15165121853351593,-0.10790840536355972,-0.1350935697555542,0.1154877096414566,-0.05476057529449463,-0.0798361524939537,-0.05182238295674324,0.041479356586933136,0.09104015678167343,0.14831148087978363,0.003471804317086935,-0.019169623032212257,-0.04386455565690994,0.07719774544239044,-0.04624461382627487,0.0868891030550003,-0.05367293208837509,-0.029977960512042046,-0.031208310276269913,0.04388483986258507,-0.11932238936424255,0.060449134558439255,0.2005554884672165,0.0767550989985466,0.03949221596121788,-0.05513680353760719,-0.15169474482536316,-0.09505157172679901,-0.08728618174791336,0.004772862419486046,-0.10633539408445358,0.047650113701820374,-0.011676083318889141,0.00018289944273419678,0.057173408567905426,0.0013487309915944934,-0.10730209946632385,-0.016338882967829704,-0.035904813557863235,0.080976702272892,-0.13895027339458466,-0.024875149130821228,0.005814278963953257,-0.0004226922756060958,0.10952102392911911,0.017875760793685913,-0.08164186775684357,0.05245981365442276,0.12136001139879227,0.0788661390542984,-0.0864291861653328,-0.059933777898550034,0.1499842256307602,-0.10548332333564758,0.005580307450145483,0.12963669002056122,0.07796583324670792,0.08826466649770737,0.0428992360830307,0.050168268382549286,0.009467543102800846,-0.06680116802453995,-0.018059074878692627,0.16111049056053162,0.010451935231685638,-0.1208263635635376,-0.07464327663183212,0.03101271763443947,-0.07303943485021591,0.11846068501472473,0.021092666313052177,-0.09191098809242249,0.10811573266983032,-0.11280219256877899,-0.030311593785881996,0.012072166427969933,-0.008558155037462711,0.08433886617422104,0.027503985911607742,0.03409907594323158,-0.027568792924284935,-0.098551444709301,0.0075727603398263454,0.05475073680281639,0.11456560343503952,-0.1362105756998062,0.1122836321592331,0.08150388300418854,-0.1091606542468071,0.08577977120876312,-0.10901150852441788,-0.10297592729330063,0.0910249650478363,-0.1087612584233284,-0.10044006258249283,0.0438990518450737,-0.008365157060325146,0.0648113265633583,-0.006331489887088537,0.10223120450973511,-0.09138630330562592,0.05186152830719948,0.04208321496844292,-0.1054423600435257,-0.0378907285630703,-0.040372978895902634,-0.08503750711679459,-0.04678582027554512,-0.045946937054395676,0.0337245836853981,0.04478706791996956,0.05192254111170769,-0.09776482731103897,-0.05003959685564041,0.02760010026395321,0.09571979194879532,-0.019415032118558884,-0.022365320473909378,-0.13843192160129547,-0.06752459704875946,0.12129314988851547,0.1533714085817337,0.007839360274374485,-0.053306736052036285,-0.07674022763967514,0.031205520033836365,-0.044630493968725204,0.030791709199547768,0.05278436467051506,0.09643451869487762,-0.02980436384677887,0.031421247869729996,0.09172524511814117,-0.0003596340538933873,0.09052398055791855,-0.13387659192085266,-0.043440449982881546,0.08983610570430756,0.021699875593185425,-0.1311296671628952,0.09746524691581726,-0.04914916679263115,-0.033486176282167435,0.12789709866046906,-0.0519719161093235,0.14470402896404266,0.0968647301197052,-0.07277480512857437,0.03654153272509575,-0.14741986989974976,-0.005729507189244032,0.047675810754299164,-0.03352176398038864,-0.0592036135494709,-0.016424721106886864,0.0038666550535708666,-0.02779996208846569,0.07418560981750488,0.09072063863277435,0.006412946619093418,-0.10565679520368576,-0.13294251263141632,-0.039000969380140305,0.02997828833758831,-0.04862283915281296,-0.07916710525751114,-0.06286357343196869,-0.007636529393494129,0.10518493503332138,0.08959493041038513,0.047930970788002014,0.008373954333364964,-0.14440007507801056,0.09756173938512802,-0.06262943148612976,0.06333484500646591,0.12129037082195282,0.1585703045129776,-0.10440516471862793,-0.18001985549926758,-0.06825871765613556,0.15867048501968384,0.004532798193395138,-0.048464447259902954,0.10952615737915039,-0.10151241719722748,-0.018202854320406914,-0.015487702563405037,0.06887713074684143,0.01935659535229206,-0.04833531379699707,-0.03329687565565109,-0.05630134791135788,0.06775649636983871,0.08425868302583694,-0.029871661216020584,-0.0012595775770023465,-0.12387979030609131,-0.06716345995664597,0.03987744823098183,-0.03080126643180847,-0.0254190843552351,0.03434444218873978,0.11675819009542465,-0.038969486951828,-0.059934139251708984,-0.0603596530854702,-0.09153461456298828,0.0338442362844944,-0.14847394824028015,-0.03360024094581604,0.03583012893795967,0.01696711964905262,-0.17405378818511963,0.1653226912021637,-0.1397939771413803,-0.014060222543776035,0.004934650845825672,0.06440707296133041,-0.04885481670498848,-0.07130300253629684,-0.041660793125629425,0.05037902295589447,0.1088019460439682,0.015307995490729809,0.07593991607427597,-0.06202111765742302,0.05014902353286743,-0.04822506755590439,0.032165251672267914,-0.14503030478954315,0.005574805662035942,0.053748298436403275,0.06894060969352722,-0.015137383714318275,-0.05806618183851242,-0.052603598684072495,0.02270057052373886,0.0184563510119915,0.14600592851638794,-0.13475090265274048,-0.11130772531032562,0.03711453825235367,-0.051440369337797165,0.085079126060009,-0.12026099115610123,0.047664228826761246,-0.009677889756858349,-0.07627178728580475,0.017694614827632904,-0.029119078069925308,-0.03447875753045082,0.02356422320008278,-0.10942733287811279,-0.10579740256071091,-0.02610081434249878,-0.06893041729927063,0.07151370495557785,0.09622982889413834,0.07251133769750595,-0.028442507609725,0.037140171974897385,0.07998330891132355,-0.014600400812923908,-0.0017120182747021317,-0.17106178402900696,-0.07511761784553528,0.1718524545431137,0.03009960986673832,0.0356098935008049,-0.049478258937597275,-0.12999069690704346,0.07534809410572052,0.1224871501326561,0.019547196105122566,-0.06031334772706032,0.019109055399894714,-0.06363782286643982,0.0773475393652916,0.1012730821967125,0.011724135838449001,-0.049120619893074036,-0.09439314156770706,0.13204701244831085,-0.1005614623427391,0.12659302353858948,-0.07489246129989624,-0.035247866064310074,0.005861060693860054,0.009481372311711311,-0.09740468114614487,-0.0394815132021904,0.20595182478427887,-0.027423426508903503,-0.08465465903282166,-0.0467195101082325,-0.10648016631603241,0.11377669125795364,-0.021978218108415604,0.05822113901376724,-0.07124447822570801,-0.11459238082170486,0.08159979432821274,0.14030513167381287,0.03594833239912987,0.09137479960918427,-0.09274972975254059,-0.07655126601457596,-0.07357291877269745,-0.04684916138648987,0.08124253153800964,0.08516526967287064,0.07351439446210861,0.11410554498434067,0.03781704604625702,0.008994150906801224,0.14922799170017242,0.04924663528800011,-0.021813521161675453,-0.11020628362894058,0.09621439129114151,0.017742035910487175,0.2290763556957245,-0.017005298286676407,-0.014647730626165867,0.001694440026767552,-0.08430933952331543,0.0296550951898098,0.06108645349740982,0.11515670269727707,-0.0023189005441963673,0.041077569127082825,-0.13163931667804718,0.0123106325045228,0.06626003980636597,-0.05822625756263733,-0.11290604621171951,-0.115814208984375,0.0319204181432724,-0.053257863968610764,-0.006198269315063953,-0.04245788976550102,-0.10639099776744843,0.10588020831346512,-0.02822774648666382,-0.12235500663518906,-0.04964471235871315,-0.02359105460345745,0.07727640122175217,0.10809465497732162,0.08555205911397934,0.060202375054359436,0.06472673267126083,0.008328435942530632,-0.07439044117927551,-0.058797139674425125,0.06360407918691635,0.10604221373796463,-0.00276558636687696,0.08847782760858536,-0.05991552770137787,-0.05864083394408226,0.015581335872411728,0.08671904355287552,-0.05077241733670235,0.026950281113386154,0.03657087683677673,-0.10277257859706879,-0.08064590394496918,-0.009180549532175064,0.036548834294080734,0.03125602379441261,-0.08170606940984726,0.01562739908695221,-0.045271135866642,0.0009050994412973523,-0.09507934749126434,-0.025974644348025322,0.05067789927124977,-0.016090115532279015,-0.004736546892672777,-0.07457467913627625,-0.04390445351600647,0.02819208987057209,-0.052505139261484146,0.16082718968391418,-0.08229460567235947,-0.057118963450193405,-0.10940634459257126,0.04681086167693138,0.031277310103178024,0.1495264172554016,-0.05396505817770958,-0.022421913221478462,-0.07747124135494232,-0.002571793971583247,0.08234623819589615,0.1835462599992752,-0.0341164693236351,-0.08990658074617386,0.05368420109152794,-0.10808101296424866,-0.030034732073545456,-0.056184954941272736,0.07993971556425095,-0.07291509956121445,-0.025926105678081512,-0.13713811337947845,0.002824694849550724,-0.043239776045084,-0.10821641981601715,0.02785305865108967,-0.10293687880039215,0.1688411980867386,-0.08913609385490417,0.03294486179947853,-0.1789175122976303,0.19664199650287628,-0.131794735789299,0.22958996891975403,-0.15555791556835175,0.00558222271502018,-0.0855802595615387,-0.05849946290254593,0.09315063059329987,0.038567863404750824,-0.07422633469104767,0.13969199359416962,-0.03815576806664467,0.061464034020900726,0.07378771156072617,-0.12693434953689575,0.057070814073085785,-0.01824239455163479,0.027764998376369476,-0.02367713861167431,-0.09015963971614838,-0.10076035559177399,-0.0640336200594902,-0.050048477947711945,0.02926146239042282,0.004089456517249346,0.0038157114759087563,0.1563740223646164,-0.07347632944583893,-0.013688869774341583,-0.06697515398263931,0.10003901273012161,-0.0965646356344223,0.2699005603790283,-0.28140169382095337,-0.10256437957286835,-0.15209069848060608,0.07719091325998306,-0.1509491503238678,0.15705159306526184,-0.02133607678115368,-0.056908853352069855,-0.06312716007232666,-0.12015586346387863,0.024486247450113297,-0.11096684634685516,0.12436418235301971,0.12107332795858383,-0.006530184764415026,-0.08883753418922424,0.0008649697992950678,0.026841415092349052,0.019117040559649467,0.060029536485672,-0.060195308178663254,0.09373373538255692,0.10372563451528549,0.11166977882385254,0.05051669478416443,0.11187699437141418,-0.05433104187250137,-0.010431691072881222,-0.1716868132352829,0.05931180715560913,-0.2110120803117752,0.006598257459700108,-0.1589370220899582,0.10112803429365158,0.0033977667335420847,-0.009786791168153286,-0.007536337245255709,-0.0037991967983543873,-0.05412657558917999,-0.04006398469209671,0.11570785194635391,0.10660288482904434,-0.04703658074140549,-0.04961906373500824,-0.033050134778022766,0.05013105273246765,0.0331331342458725,-0.01415792852640152,0.09558524191379547,0.00918059516698122,-0.08225046843290329,-0.00032203574664890766,0.0586533397436142,0.13054689764976501,-0.07468800991773605,0.12010876834392548,0.054497770965099335,0.12720957398414612,-0.047419674694538116,0.04856891185045242,-0.150736004114151,0.12695825099945068,-0.012481240555644035,0.0745132565498352,0.03358328342437744,-0.06777548044919968,0.047274813055992126,0.06183163821697235,0.12484834343194962,-0.030298002064228058,-0.06724303960800171,-0.05258648097515106,-0.05487772449851036,-0.07352038472890854,0.09818896651268005,0.015361032448709011,0.05019557848572731,-0.02518492192029953,0.08835355937480927,-0.08173378556966782,-0.0881769061088562,-0.10869365185499191,-0.13723984360694885,-0.07882918417453766,0.19297167658805847,-0.16792036592960358,-0.07436742633581161,-0.04778548330068588,-0.06022294983267784,0.043209508061409,0.12902526557445526,0.1414380967617035,0.06335518509149551,-0.026900459080934525,0.02486501820385456,-0.023228580132126808,-0.08823273330926895,-0.03799048066139221,-0.14575061202049255,0.02518666535615921,-0.041367124766111374,0.002647303743287921,0.1657216101884842,0.06752959638834,0.03957974538207054,-0.008968264795839787,0.0621609129011631,-0.01670164242386818,0.04980911687016487,-0.07662508636713028,-0.08375247567892075,-0.06911566108465195,-0.16004858911037445,0.017197657376527786,0.07534755766391754,0.0966845378279686,0.06288551539182663,-0.17784547805786133,-0.17516286671161652,0.13723772764205933,0.1254483014345169,0.10660694539546967,0.12103009223937988,-0.09868326783180237,-0.1206139400601387,0.12597712874412537,-0.046233851462602615,0.02680017426609993,-0.10526428371667862,0.02276838757097721,-0.05451944097876549,-0.11664574593305588,0.03475197032094002,-0.0006929697119630873,0.04860860854387283,-0.015098431147634983,-0.07138794660568237,0.0735502615571022,0.030405720695853233,-0.07979721575975418,-0.10476205497980118,-0.017373329028487206,-0.09039662778377533,0.12274172902107239,0.006055533420294523,-0.015459503047168255,0.002467227401211858,-0.20074841380119324,-0.03858179599046707,0.25082528591156006,-0.1263381838798523,0.027964716777205467,0.059924449771642685,0.03562333434820175,0.10979046672582626,0.24195624887943268,-0.07704571634531021,0.022975925356149673,-0.05329544097185135,-0.07449469715356827,-0.07174593955278397,0.05512229725718498,0.014305699616670609,-0.15191058814525604,0.04016650840640068,0.05617159232497215,-0.0953945741057396,0.020199989899992943,0.05156206339597702,0.11220096051692963,0.05766335874795914,0.07328756898641586,-0.06633816659450531,0.034764207899570465,0.04535621777176857,-0.0248167272657156,-0.03374993056058884,-0.2393902838230133,0.011311565525829792,0.1421300172805786,-0.1453252136707306,-0.042146023362874985,0.0017767900135368109,-0.17857442796230316,-0.07939115911722183,0.06798743456602097,-0.10797958076000214,0.019400980323553085,-0.07825919985771179,-0.0886356458067894,-0.020223088562488556,0.09430339187383652,-0.015531509183347225,0.044323984533548355,0.09528584778308868,-0.022055940702557564,-0.07843933999538422,0.048995375633239746,-0.011166841723024845,-0.03893248364329338,-0.07250373810529709,0.0642848089337349,-0.016246141865849495,0.005837301257997751,-0.0647716298699379,0.12502242624759674,0.14841733872890472,-0.050250839442014694,0.10949895530939102,0.09100508689880371,0.005638799164444208,0.06859664618968964,-0.004372228868305683,-0.1575992852449417,0.09406895190477371,-0.036021407693624496,-0.11455412209033966,0.0373089425265789,0.021013736724853516,-0.04191378504037857,0.07430654019117355,0.06812025606632233,-0.022670075297355652,-0.08786682784557343,0.009701562114059925,-0.07941121608018875,-0.11841229349374771,0.057059019804000854,0.015544511377811432,0.007066705264151096,-0.13218453526496887,-0.01460067369043827,-0.022047104313969612,0.11649663001298904,0.08998264372348785,0.11265718936920166,-0.07741551846265793,-0.07698386162519455,-0.0824085921049118,0.07322171330451965,-0.04365859925746918,0.11448903381824493,-0.09511840343475342,0.014082102105021477,-0.08967127650976181,0.050027765333652496,0.11115200817584991,0.01801929622888565,0.05875052139163017,-0.006220802199095488,-0.06529712677001953,-0.09804915636777878,0.07855398952960968,-0.09244852513074875,0.040142349898815155,-0.1115008220076561,0.014991004951298237,-0.01666223257780075,0.01123001053929329,0.07241509854793549,0.0004014266887679696,0.05622667446732521,-0.1256372481584549,0.05874188616871834,0.01737028732895851,-0.05765372887253761,-0.05690132454037666,-0.04415847733616829,-0.11343776434659958,0.06546042859554291,0.1262831687927246,-0.10366079211235046,0.004640550818294287,0.006002303212881088,0.007166736759245396,0.07995869219303131,0.05735540762543678,0.07416623830795288,-0.003466191701591015,0.034640662372112274,-0.014967866241931915,0.09952953457832336,-0.12075614929199219,0.0785536840558052,0.10374705493450165,0.10553497821092606,0.04088949039578438,0.11943924427032471,-0.013975556008517742,-0.062452107667922974,-0.07482918351888657,0.07887747138738632,-0.05222049728035927,0.06811882555484772,0.09469787776470184,0.022758997976779938,0.1324864774942398,0.03562067821621895,0.07709722965955734,-0.05574069917201996,-0.008582539856433868,-0.00842849537730217,0.13245119154453278,-0.16449227929115295,0.09173274785280228,-0.10403762757778168,0.028297098353505135,0.10630202293395996,0.11464832723140717,-0.021827638149261475,0.054418694227933884,-0.0314752496778965,-0.04604119062423706,0.013959646224975586,-0.07728008180856705,-0.07326534390449524,0.00010416707664262503,0.004269443918019533,0.03602556139230728,0.00540957460179925,0.10216695070266724,-0.021384714171290398,-0.04575255140662193,0.03348275274038315,-0.03976767137646675,-0.01605149917304516,-0.11539846658706665,0.007683293428272009,0.017436087131500244,-0.09268072247505188,0.0825263112783432,-0.06795820593833923,0.08354154974222183,-0.045546628534793854,0.14929649233818054,-0.053286533802747726,0.11594485491514206,-0.025132138282060623,0.0634540393948555,-0.10559862852096558,-0.004338717553764582,-0.08356046676635742,0.06434787809848785,0.0899939090013504,-0.0428052693605423,-0.09086274355649948,-0.0288643017411232,0.06420741230249405,-0.09313282370567322,0.08214583247900009,0.08902306854724884,0.03798545524477959,-0.004807453602552414,0.09527626633644104,0.012987278401851654,0.12549975514411926,0.09411299228668213,0.04191998764872551,-0.05141652002930641,-0.06247629597783089,0.05178983882069588,0.03918370231986046,0.04396317899227142,-0.09799015522003174,0.02466413378715515,-0.004615792538970709,0.11589077860116959,0.039124444127082825,-0.08024454116821289,-0.13596755266189575,0.11708733439445496,-0.034543611109256744,0.01747271418571472,-0.025187743827700615,0.0368918813765049,0.01850477047264576,0.025497283786535263,-0.019219867885112762,-0.03200497850775719,-0.006818228866904974,-0.0014849231811240315,-0.09188515692949295,-0.0870751440525055,0.0013273447984829545,0.1188352108001709,-0.03256163001060486,0.022325357422232628,-0.06981852650642395,0.06242118403315544,-0.0775802955031395,-0.06511494517326355,0.0916251614689827,0.11000782251358032,0.10602636635303497,-0.09057752788066864,-0.01841416023671627,0.07023406773805618,0.09646174311637878,0.1088455393910408,-0.05314013734459877,-0.01536477543413639,0.009392949752509594,-0.08069069683551788,0.12952205538749695,-0.1547451764345169,0.015081583522260189,-0.05697067081928253,-0.027549266815185547,-0.1359102874994278,0.07531266659498215,-0.028238210827112198,-0.07304313033819199,-0.08321236073970795,0.005952989216893911,0.049821410328149796,-0.047069694846868515,0.01848037727177143,0.07438888400793076,0.07842541486024857,0.07777858525514603,0.07936243712902069,-0.17550458014011383,-0.07070592790842056,-0.1350209265947342,0.07730863988399506,-0.15802554786205292,0.0006748851155862212,0.026583543047308922,0.07755883038043976,-0.13361549377441406,-0.08368522673845291,-0.1464746743440628,-0.0350065752863884,0.1142343282699585,-0.13152988255023956,-0.03194461017847061,-0.0837898999452591,0.07515613734722137,0.1190287321805954,0.177353173494339,-0.08742690831422806,0.1742260456085205,-0.02461254969239235,0.02433505468070507,0.1359272003173828,-0.13160845637321472,-0.029987791553139687,0.03912673890590668,0.15902838110923767,0.09241802990436554,-0.00834261067211628,-0.20935161411762238,-0.04532931372523308,0.18695828318595886,-0.08762883394956589,0.006763900630176067,-0.09831155091524124,0.052365101873874664,-0.06437736004590988,-0.10694924741983414,-0.11385556310415268,-0.12961308658123016,-0.047409217804670334,0.2163248211145401,-0.04881075397133827,-0.09358306974172592,0.015218114480376244,-0.0718618705868721,-0.015035872347652912,-0.007826379500329494,-0.16544109582901,0.15362001955509186,-0.013408012688159943,0.014396701008081436,0.06658975780010223,0.11962008476257324,-0.11371665447950363,0.01970304735004902,-0.01931874081492424,0.12151218205690384,0.1384023129940033,-0.09360693395137787,-0.14635640382766724,0.009303063154220581,-0.02447175793349743,-0.08006176352500916,0.13128237426280975,0.11477424204349518,0.11972711235284805,-0.10085223615169525,-0.07706201076507568,-0.11447461694478989,-0.08881502598524094,0.0541117787361145,-0.016332343220710754,-0.07281672209501266,-0.09830442816019058,0.10413116216659546,-0.055898960679769516,0.12508141994476318,0.049981746822595596,0.1369202733039856,-0.0445743091404438,0.04982707276940346,-0.07611922174692154,0.025360940024256706,-0.06251930445432663,0.029359230771660805,-0.04163147509098053,0.0906267985701561,0.0925118550658226,0.10408873856067657,-0.07345987111330032,0.04346642643213272,-0.0821855366230011,-0.040558282285928726,-0.08079589158296585,0.019201073795557022,-0.10131143033504486,0.05908901244401932,0.016113312914967537,-0.03287390246987343,-0.012267982587218285,0.12151705473661423,-0.030489306896924973,-0.021582383662462234,-0.11187700182199478,-0.10283961892127991,0.007582121528685093,0.06460709124803543,-0.07087848335504532,-0.07919925451278687,-0.08942114561796188,-0.022006144747138023,-0.005303105339407921,-0.06607253104448318,0.04678650572896004,0.06836415827274323,0.044196903705596924,-0.07970432192087173,0.12236309796571732,0.09977730363607407,0.08442232012748718,0.02715909481048584,-0.05281171202659607,0.05223606899380684,0.14182259142398834,0.06995130330324173,-0.05180476978421211,0.002672664588317275,0.048992279917001724,-0.11428933590650558,-0.08810288459062576,0.0024161157198250294,0.1058574914932251,-0.03022855333983898,-0.02825513482093811,-0.03402763977646828,0.06516373157501221,-0.009341844357550144,0.04418022185564041,-0.0030524537432938814,0.051417723298072815,-0.03847644850611687,0.016696268692612648,0.011288337409496307,-0.05156119167804718,0.16320794820785522,0.09550302475690842,0.1387864053249359,-0.06342323869466782,-0.07941992580890656,0.029953788965940475,-0.06030566245317459,-0.09687919169664383,0.119038425385952,0.06657744944095612,0.05409761518239975,0.08323052525520325,0.007558823563158512,-0.10168247669935226,0.08035875111818314,0.12202739715576172,0.0738014355301857,0.055721692740917206,-0.09271606802940369,0.17894338071346283,-0.0011523019056767225,0.10411212593317032,-0.011017140001058578,0.12063216418027878,-0.08105818182229996,-0.02108934335410595,-0.0047521041706204414,-0.04916629567742348,-0.09840763360261917,0.014724202454090118,0.10435295104980469,0.01651342399418354,-0.01999298669397831,-0.24460406601428986,-0.09432897716760635,0.03742888569831848,0.07961655408143997,0.09418793767690659,0.06426304578781128,-0.07358274608850479,0.03251662477850914,-0.007812769152224064,-0.002586119342595339,0.1260814219713211,-0.019908888265490532,0.17764785885810852,-0.13041575253009796,0.06364147365093231,0.04920002818107605,-0.03950861096382141,-0.10360706597566605,0.12968841195106506,-0.10670652240514755,-0.03949275612831116,-0.114702969789505,0.0727187916636467,-0.089374840259552,0.027064193040132523,-0.10976415127515793,-0.0347556546330452,-0.029728179797530174,0.1355702430009842,-0.009710152633488178,-0.22725944221019745,-0.04335052892565727,0.06099799647927284,-0.08464537560939789,-0.10135640949010849,0.08804843574762344,0.012421899475157261,-0.07741277664899826,0.10740452259778976,-0.015204355120658875,0.0328899547457695,0.09093450009822845,-0.06594815105199814,-0.043805480003356934,-0.0012578757014125586,0.06627597659826279,-0.06694137305021286,-0.026365971192717552,0.1071317046880722,-0.011266193352639675,0.05841796472668648,-0.09298067539930344,0.031665630638599396,-0.04721516743302345,-0.06221232935786247,0.13938800990581512,-0.06263086944818497,-0.04765065386891365,-0.052439574152231216,-0.027543678879737854,-0.08638528734445572,0.18079523742198944,0.09046551585197449,0.10891160368919373,-0.1848522573709488,-0.02251102402806282,-0.10695800930261612,0.06319697201251984,0.09300367534160614,0.02713327296078205,0.11351001262664795,-0.14415636658668518,0.13190387189388275,0.060954172164201736,-0.10733961313962936,0.0008784375968389213,-0.0956958532333374,-0.007528020069003105,0.13942639529705048,-0.06464860588312149,-0.03326492756605148,0.022000396624207497,0.09610529243946075,-0.08095230907201767,-0.0499538816511631,-0.20232446491718292,0.09474679827690125,0.06698639690876007,0.03435731306672096,-0.06769096851348877,0.009651982225477695,-0.0034862211905419827,-0.024663181975483894,0.029102109372615814,0.09417414665222168,-0.05282903462648392,-0.012821649201214314,0.009420271031558514,0.08121685683727264,-0.08261911571025848,0.09356292337179184,-0.10873774439096451,0.14612402021884918,0.10612355172634125,0.07826125621795654,-0.014085463248193264,-0.07921385765075684,0.04749593511223793,0.006430978421121836,-0.12484411150217056,0.05875350534915924,0.07286693155765533,0.11205557733774185,0.01653560996055603,0.028485387563705444,-0.18859998881816864,0.017002873122692108,-0.06166144832968712,0.08913880586624146,-0.029869383201003075,-0.1660783588886261,0.038501668721437454,-0.053163714706897736,0.15935710072517395,0.0024671624414622784,0.021751483902335167,0.08418413996696472,0.03192795068025589,0.07568250596523285,-0.08259705454111099,-0.0753714069724083,-0.12880896031856537,0.009646658785641193,0.03788910433650017,0.01381594780832529,0.019741173833608627,-0.07026351243257523,0.0932607501745224,0.06897082179784775,-0.11929957568645477,0.09596063941717148,-0.03094136342406273,0.0037596088368445635,0.05060025677084923,0.13773348927497864,-0.2078499048948288,0.07302112877368927,0.0054244366474449635,-0.02079479582607746,0.07842031866312027,0.0018114972626790404,-0.03688965365290642,-0.09584034234285355,0.07895290851593018,-0.1441887766122818,0.08983521908521652,-0.12835106253623962,-0.03358848765492439,0.08530944585800171,-0.07275160402059555,-0.007387788500636816,-0.006313865073025227,0.07133431732654572,-0.08793320506811142,0.05639670044183731,0.09149850904941559,0.02881939522922039,-0.14704643189907074,-0.04735007509589195,0.08791650831699371,0.06497757136821747,0.04967242851853371,-0.07092860341072083,-0.022556563839316368,-0.03665902465581894,-0.06096150353550911,-0.07008190453052521,-0.0897805243730545,-0.019579721614718437,0.13564445078372955,-0.008576817810535431,0.0015959086595103145,0.11462492495775223,0.11683011054992676,0.0205120500177145,0.056836917996406555,0.09002139419317245,-0.07819217443466187,-0.05109810084104538,0.09026197344064713,0.09055054932832718,0.02887021191418171,-0.07499877363443375,-0.012128516100347042,-0.11006676405668259,0.029820766299962997,0.009641396813094616,-0.06932394206523895,0.14307661354541779,0.08910872787237167,-0.06996559351682663,0.013882769271731377,0.11213461309671402,-0.0598812960088253,0.10081017762422562,0.10816611349582672,-0.1016094982624054,-0.08053062111139297,0.041319962590932846,-0.07021839916706085,0.05092823505401611,-0.06064058095216751,0.08789504319429398,0.0006968291709199548,-0.043388694524765015,-0.0019352424424141645,0.07039245963096619,-0.07626944780349731,0.008300737477838993,0.0851057767868042,0.05361407995223999,0.0352090522646904,0.0451229065656662,0.022418702021241188,-0.06278493255376816,0.10022537410259247,-0.06998953968286514,0.037575118243694305,-0.10127828270196915,0.04543349891901016,-0.11356291174888611,0.034213196486234665,0.06103493645787239,-0.054288484156131744,-0.0882992073893547,-0.019931018352508545,-0.14382195472717285,0.05722776800394058,0.0428246334195137,0.05503969267010689,-0.09768272936344147,0.08902984112501144,0.05252853408455849,-0.012207596562802792,0.1025109514594078,0.0436459481716156,-0.08900857716798782,-0.021364063024520874,0.024323338642716408,0.022543279454112053,0.10052649676799774,-0.07561599463224411,-0.09661298245191574,0.10883539170026779,0.012722296640276909,-0.1396048218011856,-0.02678213082253933,0.017367854714393616,-0.09255307167768478,-0.03521442785859108,-0.08576628565788269,-0.02330677956342697,-0.000706609571352601,-0.05688853561878204,-0.0637286826968193,0.08277790248394012,-0.11395863443613052,0.06537892669439316,0.1756824404001236,0.1204831674695015,0.03550049290060997,-0.1049109622836113,0.1336202770471573,-0.07745545357465744,0.0046480316668748856,-0.013019612990319729,-0.17263291776180267,0.007781855296343565,-0.0831092819571495,-0.10341848433017731,0.06406955420970917,-0.06527812033891678,0.03933655098080635,-0.06123439595103264,-0.08868277817964554,-0.1157384067773819,-0.01861916109919548,0.06921034306287766,-0.09788895398378372,-0.06474082171916962,0.06601203978061676,-0.11336755752563477,0.1783384382724762,0.03982076421380043,-0.0815432146191597,0.03460429236292839,0.08083585649728775,-0.20967277884483337,0.16277538239955902,-0.007250427268445492,-0.04914426431059837,-0.05153438821434975,0.08183411508798599,-0.1503373086452484,0.10419267416000366,-0.046551886945962906,0.062113747000694275,0.02427912876009941,-0.04959952086210251,-0.0033813011832535267,-0.08006106317043304,0.032475460320711136,0.12475647032260895,0.0902542769908905,0.03561406582593918,0.05491416156291962,0.03529435768723488,0.073105588555336,-0.11036366969347,-0.0775221511721611,0.03313596546649933,-0.05918429419398308,0.03911607339978218,-0.05753980204463005,-0.08773377537727356,0.019139904528856277,-0.07582147419452667,-0.10784995555877686,0.1035982072353363,-0.08112383633852005,0.10046190023422241,0.007592012640088797,-0.03478630632162094,-0.01607591286301613,0.06254558265209198,-0.026219841092824936,0.04371729493141174,0.03669842332601547,0.07184859365224838,-0.001543895690701902,0.04121840000152588,-0.1059878021478653,0.0889730155467987,0.019678663462400436,0.057425666600465775,-0.07464533299207687,-0.12004326283931732,-0.03536418080329895,0.10121747851371765,-0.09420553594827652,-0.05254696309566498,0.026721974834799767,-0.0970403403043747,-0.007924777455627918,0.03798122704029083,0.051270220428705215,-0.020096687600016594,0.006551862694323063,0.14160886406898499,0.120201975107193,-0.03161376342177391,-0.05245861038565636,0.009852082468569279,0.04123580828309059,0.021352289244532585,-0.12334015965461731,0.10244400799274445,0.09113872796297073,0.0006754357600584626,-0.10538523644208908,-0.07609657198190689,-0.029206164181232452,-0.0747300311923027,-0.08874015510082245,-0.036741916090250015,0.0005397877539508045,-0.11600351333618164,0.015105432830750942,-0.029407259076833725,0.17230898141860962,-0.142736554145813,-0.01339251734316349,0.025923777371644974,-0.016224190592765808,-0.014001894742250443,0.0031264638528227806,-0.12049968540668488,-0.015525738708674908,-0.09584028273820877,0.0713559091091156,-0.008863143622875214,0.21449226140975952,-0.03563503548502922,-0.1462206244468689,-0.09711131453514099,-0.027680303901433945,-0.06952452659606934,0.05777933448553085,-0.0021408372558653355,0.041335660964250565,0.050564877688884735,-0.0998246967792511,0.08450187742710114,0.10212226957082748,0.039362743496894836,0.011582850478589535,-0.09531424939632416,-0.009655662812292576,-0.059076908975839615,0.15894243121147156,0.03419233858585358,-0.06214514747262001,-0.09759673476219177,-0.016058871522545815,0.16467911005020142,0.13417011499404907,-0.010213985107839108,-0.03146838769316673,-0.08767931163311005,0.011737239547073841,0.133003368973732,0.13220834732055664,-0.11383950710296631,-0.22769926488399506,0.012000972405076027,0.06183793023228645,-0.01368640922009945,0.07146535813808441,-0.042003121227025986,-0.02900218591094017,0.0529075525701046,0.07011839747428894,-0.07420211285352707,0.007038448471575975,0.08862078934907913,-0.023513691499829292,-0.03410220146179199,-0.07911251485347748,0.03286800906062126,0.13097286224365234,-0.06280139088630676,-0.06605023890733719,-0.08562210202217102,-0.12448117882013321,0.12405339628458023,0.04511121287941933,-0.13581039011478424,-0.20017874240875244,-0.1140054240822792,0.10413126647472382,0.16840849816799164,0.14307157695293427,-0.04432576149702072,-0.2086075395345688,-0.033787067979574203,0.1569993942975998,0.022114744409918785,0.1250990331172943,-0.06629572808742523,-0.018386071547865868,-0.022611649706959724,0.03967569023370743,-0.1406039148569107,0.20526175200939178,0.09147502481937408,0.07506759464740753,-0.11706002801656723,0.08070207387208939,-0.026280982419848442,0.1741521805524826,-0.13562263548374176,0.0010420421604067087,0.03329271450638771,0.02162718027830124,0.06330689042806625,0.18394924700260162,-0.028766663745045662,-0.11742417514324188,0.10729796439409256,-0.005114723928272724,0.1694849133491516,0.09020664542913437,-0.15450628101825714,-0.1711227297782898,0.09992487728595734,0.0038184828590601683,0.08900134265422821,0.10401269048452377,0.02541094832122326,0.09415876865386963,-0.04228564351797104,-0.046117063611745834,-0.036138709634542465,0.0421002060174942,0.09727348387241364,0.010210967622697353,-0.08444471657276154,-0.06899022310972214,0.01647123508155346,0.10833102464675903,-0.06286673992872238,-0.06745640188455582,0.1276649534702301,-0.05100241303443909,-0.049181945621967316,0.08325747400522232,-0.04931192100048065,0.10482577979564667,-0.02559801936149597,-0.12898412346839905,0.0036882790736854076,0.0025910506956279278,-0.019434966146945953,0.0002607988135423511,0.13732650876045227,0.010613537393510342,0.12633468210697174,0.03857635706663132,0.08227407187223434,0.00460392190143466,-0.09846686571836472,-0.10171087086200714,-0.007256259676069021,0.057705022394657135,0.10489171743392944,0.00956726260483265,0.039947036653757095,0.04276169463992119,-0.006202119868248701,-0.0820171907544136,-0.04272623360157013,-0.037422433495521545,-0.024078045040369034,-0.01305865403264761,-0.047025613486766815,0.03422601521015167,-0.16815797984600067,-0.017322691157460213,-0.015422426164150238,-0.005877300165593624,-0.08373381197452545,0.15629684925079346,-0.046508222818374634,0.002647957531735301,0.08867020905017853,0.03820580244064331,-0.11525662988424301,-0.08086755126714706,0.05836813524365425,0.08338954299688339,0.02920796535909176,0.0899045392870903,-0.06463801115751266,0.04654546454548836,-0.03077881969511509,-0.09651153534650803,0.014637218788266182,-0.11504735797643661,0.05017397925257683,0.11943595856428146,0.10170396417379379,0.0068800197914242744,-0.01663416065275669,0.05851985141634941,-0.0951438620686531,-0.03135530650615692,-0.0038590705953538418,-0.07858220487833023,0.061710175126791,-0.04662631079554558,-0.05919381603598595,-0.12745042145252228,0.05725392699241638,0.06203707307577133,0.026026004925370216,0.09460747241973877,-0.16248469054698944,0.08072322607040405,0.07084523886442184,-0.14726608991622925,-0.010618642903864384,-0.06734877824783325,-0.05552273616194725,0.00647383276373148,-0.057208772748708725,-0.06047116965055466,0.09467470645904541,0.05017973855137825,0.05540497601032257,0.08339494466781616,0.041332680732011795,0.20892664790153503,-0.06191367655992508,0.13375318050384521,0.056626252830028534,-0.11078392714262009,-0.09882190823554993,0.11587990820407867,0.06856882572174072,-0.014665582217276096,-0.07144145667552948,0.05392870679497719,-0.023106040433049202,0.1459990292787552,0.03695714473724365,0.050585631281137466,-0.0011753154685720801,-0.15926001965999603,-0.021366465836763382,0.13273967802524567,-0.10605788975954056,-0.09380124509334564,-0.10483261197805405,-0.026854146271944046,0.017226235941052437,0.05929484963417053,-0.0443505235016346,-0.1006375104188919,0.02132006175816059,0.04297299310564995,-0.12793377041816711,0.1384521871805191,-0.01748577691614628,-0.010628530755639076,-0.09500846266746521,0.07963168621063232,-0.08884914219379425,0.04076981544494629,0.11942590028047562,0.08317558467388153,-0.17979758977890015,0.04577628895640373,0.025552669540047646,0.14195995032787323,-0.00967453420162201,-0.08884096145629883,-0.013151227496564388,0.004159960430115461,0.04512254521250725,-0.04679930582642555,-0.05651254951953888,0.009216451086103916,-0.005540835205465555,0.03661447763442993,-0.008104517124593258,0.008353724144399166,0.05204011872410774,-0.04410291835665703,0.0015457416884601116,-0.04983554407954216,0.08395599573850632,0.12100004404783249,0.09094464778900146,0.09170863032341003,0.0770043209195137,-0.01577354222536087,-0.07690108567476273,-0.14115338027477264,0.11626172810792923,0.008876082487404346,-0.10891947895288467,0.04561113566160202,-0.009728421457111835,-0.02141556516289711,-0.049623552709817886,-0.04927458614110947,-0.11592758446931839,0.055936992168426514,0.052019715309143066,0.15587356686592102,-0.18333347141742706,0.021926455199718475,-0.060486216098070145,0.03225724771618843,-0.08384823799133301,-0.025966141372919083,-0.08348707854747772,-0.029213564470410347,-0.007441273424774408,0.12088041007518768,0.042103927582502365,-0.009468672797083855,-0.05835670977830887,0.005772856064140797,-0.03979318588972092,0.02938169613480568,0.024817345663905144,0.051920149475336075,-0.09862075746059418,-0.01532752625644207,-0.11803457885980606,0.1651279330253601,-0.04643722251057625,-0.08559302240610123,0.00691353902220726,-0.035179171711206436,0.057071901857852936,0.06810621917247772,0.05399155244231224,0.029620639979839325,0.07398401945829391,-0.12661436200141907,0.015092368237674236,-0.0028323803562670946,-0.08970484137535095,-0.06293509900569916,-0.09215308725833893,0.04661775380373001,0.10739214718341827,0.06597685813903809,-0.07450442761182785,-0.01485277060419321,-0.08158335089683533,-0.046566639095544815,0.07822023332118988,-0.006817738525569439,-0.107026107609272,0.14198897778987885,-0.16207264363765717,-0.011648452840745449,0.013589766807854176,-0.10126811265945435,-0.07003121823072433,-0.07736244797706604,-0.039906375110149384,-0.11504960805177689,-0.01859450899064541,0.1301591396331787,-0.10753375291824341,0.02352323941886425,-0.0384100079536438,-0.13345476984977722,0.08280165493488312,-0.06986448913812637,-0.0355541929602623,0.06736909598112106,0.060795288532972336,-0.01707787811756134,-0.06226664409041405,0.08265659213066101,0.07171120494604111,0.10745575278997421,-0.19204899668693542,0.0606207512319088,-0.05469363555312157,-0.02560766413807869,-0.13848087191581726,0.033907197415828705,-0.09227050095796585,0.04009832814335823,0.0939875915646553,0.08029790967702866,-0.08773879706859589,0.09353940188884735,-0.0010882429778575897,-0.08008228987455368,0.038517456501722336,0.0027696702163666487,-0.05774407461285591,-0.013954059220850468,0.0386342890560627,-0.10368981212377548,-0.005112267564982176,0.006528893951326609,0.05050641670823097,0.006557330023497343,0.014358006417751312,0.08443380147218704,0.10689838975667953,-0.05244665592908859,0.07039131969213486,0.16683129966259003,-0.024829385802149773,-0.05638766288757324,0.11341787129640579,0.16984082758426666,-0.06437185406684875,0.03450167551636696,0.08638817816972733,-0.03909038007259369,0.12025679647922516,0.08966152369976044,0.032997556030750275,-0.010296954773366451,-0.05864860862493515,0.11661090701818466,0.04947219416499138,0.07188743352890015,-0.06201350316405296,0.07411282509565353,-0.11056520789861679,0.05216548219323158,0.09860160201787949,-0.019156336784362793,0.051347605884075165,-0.1053730919957161,-0.1318352073431015,-0.101893350481987,0.09211983531713486,-0.0005122875445522368,-0.0953458920121193,0.08626536279916763,-0.11875646561384201,0.11136426776647568,-0.012883163057267666,0.026470588520169258,-0.027283692732453346,0.08080650866031647,0.09968414157629013,-0.06136905401945114,0.0888548493385315,0.11171945184469223,-0.1230464056134224,-0.11122530698776245,0.0917733907699585,0.08746980130672455,-0.10964015126228333,0.0316062793135643,0.08271083235740662,0.07773785293102264,0.028076766058802605,-0.061947062611579895,-0.08474522083997726,0.13573642075061798,-0.011189812794327736,0.019734619185328484,-0.00981889944523573,0.06339336186647415,0.06611364334821701,-0.006278579588979483,-0.09732034057378769,0.04312824830412865,-0.007391360122710466,0.03556462377309799,-0.06573478132486343,0.14531895518302917,-0.21149024367332458,-0.07997892796993256,-0.05255170911550522,-0.008968302048742771,-0.021143296733498573,0.2231495976448059,-0.1726294606924057,-0.03222629800438881,0.12552101910114288,-0.06453178822994232,-0.05517537146806717,0.12139156460762024,-0.10169827193021774,-0.011388532817363739,-0.11037204414606094,-0.11105748265981674,-0.07548144459724426,-0.03142715245485306,-0.016148196533322334,0.028024500235915184,-0.0299680195748806,-0.08148053288459778,-0.08476820588111877,0.026219043880701065,-0.06697660684585571,0.08036699146032333,0.06409374624490738,0.13139492273330688,-0.06297004967927933,0.07114843279123306,-0.13420329988002777,-0.04546153545379639,0.1434883177280426,0.05592745915055275,-0.17602594196796417,-0.11658711731433868,-0.13720279932022095,0.15276111662387848,0.048761963844299316,0.08066312223672867,-0.04028328135609627,0.027072876691818237,0.047284085303545,0.07725141197443008,0.055397842079401016,0.08769509196281433,-0.019528523087501526,0.0825590267777443,0.06569794565439224,0.05721242353320122,-0.012134167365729809,0.06080834940075874,0.034244198352098465,0.016747891902923584,0.01765291392803192,-0.062424324452877045,0.23761016130447388,-0.10024428367614746,-0.16950365900993347,-0.04531729593873024,-0.0605144277215004,-0.07085418701171875,0.23105604946613312,0.16325965523719788,-0.08350936323404312,-0.14703519642353058,0.059435777366161346,-0.017020290717482567,0.1871529370546341,0.15226949751377106,-0.05582815781235695,-0.18155422806739807,-0.002635280368849635,-0.0726608857512474,0.06050299108028412,0.008025100454688072,-0.07093127071857452,0.03133583441376686,0.07264687120914459,-0.05845921114087105,-0.07236549258232117,-0.13258609175682068,-0.0020617616828531027,0.06957030296325684,-0.0990680456161499,0.006038458086550236,0.08985186368227005,-0.10218281298875809,-0.076617531478405,-0.018486838787794113,-0.07065246999263763,0.002245364710688591,0.25248193740844727,0.13932977616786957,-0.011828213930130005,-0.05568200722336769,-0.11391445994377136,0.031216122210025787,0.06889946758747101,0.0739227756857872,-0.050019316375255585,-0.03349658101797104,0.05193589627742767,0.08398664742708206,-0.03782564774155617,-0.01156708225607872,0.07003414630889893,0.13504503667354584,0.10553345084190369,-0.06682926416397095,0.0011382114607840776,0.028018131852149963,-0.06433986127376556,0.035558443516492844,-0.13262596726417542,-0.07868001610040665,0.032131489366292953,-0.05785684287548065,0.048142071813344955,-0.09522954374551773,-0.131913423538208,-0.12801390886306763,0.0966896042227745,0.14247965812683105,0.01718166656792164,0.08457377552986145,0.04376499354839325,-0.12156262993812561,-0.020368464291095734,0.07467123866081238,-0.04071837663650513,-0.08672782778739929,0.10934150964021683,-0.07073332369327545,-0.06003771722316742,-0.0850832536816597,-0.007039992138743401,-0.033486418426036835,0.059520967304706573,-0.07848232239484787,0.05525572597980499,-0.03516790643334389,-0.06079421192407608,0.0006687486893497407,-0.1380060613155365,0.03316250443458557,-0.04032902047038078,-0.11235484480857849,0.02311072312295437,0.21916477382183075,-0.009565209969878197,0.01659982092678547,-0.05322679877281189,0.03435672074556351,-0.022352099418640137,0.01571371965110302,-0.08778020739555359,0.11767563968896866,-0.09210225194692612,0.07066602259874344,0.028681626543402672,0.13203544914722443,-0.10415877401828766,0.07504250854253769,-0.12574820220470428,-0.025761902332305908,-0.07710933685302734,0.09251241385936737,0.040532421320676804,-0.07722997665405273,0.05515933781862259,0.047496479004621506,-0.028857119381427765,0.14131316542625427,0.0652926042675972,-0.01171241793781519,-0.1570589691400528,-0.006250713020563126,-0.0298019889742136,0.17216020822525024,-0.001125468872487545,-0.08367562294006348,-0.009948101826012135,0.16462461650371552,-0.17531971633434296,0.13672754168510437,0.02528669871389866,0.0332106314599514,0.08977721631526947,-0.09150587022304535,0.030332690104842186,-0.009908290579915047,0.10062198340892792,0.07706324756145477,-0.11422193795442581,-0.10271141678094864,0.0339917354285717,0.056932371109724045,0.09079954028129578,0.04990023002028465,-0.08047333359718323,-0.027331994846463203,-0.06498827040195465,0.12250879406929016,-0.11826540529727936,0.16798707842826843,-0.24527022242546082,0.21165145933628082,0.00759451137855649,0.10631007701158524,-0.04582013934850693,-0.09573658555746078,-0.019808605313301086,0.21230636537075043,-0.1502648890018463,0.14635372161865234,0.02457205206155777,0.09628387540578842,-0.060231763869524,-0.004193909931927919,-0.08169814944267273,-0.030898945406079292,0.06170044094324112,-0.07111601531505585,0.0379650816321373,0.09500113129615784,-0.02414671890437603,0.11865425854921341,0.0770154818892479,0.020070532336831093,0.010975942015647888,-0.0600883774459362,-0.03688487038016319,-0.01254130806773901,-0.11939772218465805,0.06694027036428452,-0.019444171339273453,0.010688085108995438,0.0022948754485696554,-0.06442806869745255,-0.02181646041572094,-0.1539408266544342,-0.07610243558883667,0.2658673822879791,0.042014043778181076,0.08761733025312424,-0.08057156950235367,0.05959717556834221,-0.0697677731513977,0.1005898118019104,-0.07241380214691162,0.060184601694345474,0.07116010040044785,-0.15554632246494293,0.07700684666633606,0.09097523987293243,-0.06480970233678818,-0.050196848809719086,0.05979296565055847,0.01244912575930357,-0.11026355624198914,-0.0871368795633316,0.023044681176543236,0.1225242167711258,-0.09959933906793594,-0.08108244836330414,-0.11895756423473358,-0.033226363360881805,0.0879826545715332,0.024834906682372093,0.08913566172122955,-0.13713037967681885,-0.05255995690822601,0.0771917775273323,-0.14888626337051392,0.10949210077524185,0.03369283303618431,0.11435092985630035,-0.03741563856601715,0.10583703964948654,-0.04226357117295265,0.031117448583245277,0.11632763594388962,0.003675035433843732,-0.01413760893046856,0.07464845478534698,0.03658038750290871,-0.11445793509483337,-0.09794687479734421,-0.07193534821271896,-0.11326435208320618,-0.05452136695384979,0.0132822310552001,0.036495551466941833,-0.07918862998485565,0.043442968279123306,0.11207333207130432,0.12241201102733612,-0.03809784725308418,0.05180435627698898,-0.08178592473268509,0.014438183046877384,0.060040466487407684,0.043487150222063065,-0.16258399188518524,-0.10345930606126785,0.04159941524267197,0.15361334383487701,0.10992340743541718,0.10006551444530487,0.06440681219100952,-0.11588495969772339,-0.08170214295387268,-0.02353009209036827,-0.08236265927553177,-0.050458651036024094,0.04331686720252037,0.04255789890885353,0.05417275056242943,-0.027574369683861732,0.016912609338760376,-0.02784140594303608,0.05003473162651062,-0.10114963352680206,0.07914850115776062,0.03406267613172531,0.005528709851205349,0.04392429441213608,0.04578269273042679,-0.07945745438337326,0.052842877805233,0.04542776197195053,-0.03885447233915329,-0.005689589306712151,-0.14100496470928192,-0.09249883145093918,0.08465653657913208,0.0026589541230350733,0.11895857751369476,-0.08463773131370544,0.01885768584907055,-0.07379789650440216,-0.05042725056409836,0.06897386163473129,0.08745348453521729,-0.10657112300395966,0.05702594667673111,0.027065163478255272,-0.007264076732099056,-0.05407752841711044,0.013167236931622028,-0.10222684592008591,0.008447005413472652,-0.14502611756324768,0.07003894448280334,-0.061056457459926605,-0.042299699038267136,-0.08660896867513657,0.026424581184983253,0.08822625130414963,0.07446352392435074,0.07626263052225113,0.047226179391145706,0.00015367202286142856,-0.07190908491611481,0.08236265182495117,-0.1063397005200386,0.055885449051856995,0.029266618192195892,-0.0740659087896347,-0.020878689363598824,0.05797216668725014,-0.0684155821800232,-0.11883968114852905,-0.00531778996810317,-0.12008029967546463,-0.004303316120058298,-0.08071693032979965,-0.11452803015708923,0.026689065620303154,-0.02997964434325695,0.05301037058234215,0.008628485724329948,0.03768220916390419,0.08165667206048965,-0.13700422644615173,-0.07598615437746048,-0.05344583839178085,0.1285192370414734,0.020590107887983322,0.09650427848100662,-0.17187754809856415,-0.011762993410229683,-0.001918954192660749,0.031197234988212585,0.035594068467617035,-0.07591067999601364,0.029878044500947,-0.047847554087638855,-0.08214505016803741,0.09171293675899506,0.05946243926882744,-0.09334085136651993,0.044271089136600494,-0.08578137308359146,0.0856141448020935,-0.021562453359365463,0.07688084244728088,0.018846211954951286,-0.09103976935148239,0.09316884726285934,0.09500525146722794,-0.10133346915245056,0.09636647999286652,0.008663264103233814,0.07111863046884537,0.00029611491481773555,-0.03985768184065819,0.04311858490109444,0.012555350549519062,-0.020284384489059448,0.03178863972425461,0.10927607864141464,0.06451993435621262,0.016045305877923965,0.04927094653248787,0.05225348472595215,-0.09163887053728104,-0.11868850886821747,-0.007539471611380577,0.014517221599817276,0.0342521145939827,0.06012513488531113,0.027218477800488472,-0.03680424764752388,-0.06836231797933578,-0.04393346235156059,-0.025454292073845863};
TPrecision fully_connected_BiasAdd_0_biases[] = {0.01297310646623373,0.0038291437085717916,-0.018954956904053688,-0.007699137553572655,-0.006133158691227436,0.015985533595085144};

#endif